round,window_end_date,intercept,market_abs,market_sq,dispersion,tail_count,downside_market,BTC_abs,BTC_sq,BTC_downside,ETH_abs,ETH_sq,ETH_downside,SOL_abs,SOL_sq,SOL_downside,BNB_abs,BNB_sq,BNB_downside,AVAX_abs,AVAX_sq,AVAX_downside
0,2022-03-05 00:00:00+00:00,1.5249201931907566,0.07819600529759412,0.029130211040824604,0.30524045476302586,0.019348256773803467,-0.014250487239613434,0.11894222897554656,-0.10138389022639153,-0.01521084905683728,0.06690529815392529,0.09854874034908481,0.006104561574540023,-0.08640567693630051,-0.006762347076640075,-0.08477507447233447,0.06431736593494579,0.12731621360429163,-0.06382317311909771,0.13625488035686953,-0.040505774173793724,0.09582050721061909
1,2022-03-15 00:00:00+00:00,1.5295311722275897,0.06803115323799183,0.03781816102622982,0.33569687591711544,-0.02224782937289686,-0.011633635544111088,0.13779871502000962,-0.10033329399265749,-0.03286144625013432,0.049056710550833584,0.09526694887639049,0.022590343111221458,-0.07883362837698712,0.007138326936155562,-0.10026241353013238,0.04128032194640572,0.14520574069262476,-0.06750535240222023,0.12318314023739832,-0.04178897670394631,0.1277410627924861
2,2022-03-25 00:00:00+00:00,1.5348040106719087,0.08169489793020324,0.03032325131016533,0.34884136045789027,-0.09214148019647418,-0.008154593379861075,0.16084027021417427,-0.08939730380677173,-0.06595726021374891,0.03287787895408345,0.08480703662474931,0.05276866579437477,-0.07217744277030459,0.006276259695037284,-0.09009650058576109,0.042400956672044854,0.13694823041406895,-0.06409346414044782,0.16102795758702104,-0.05604179329616445,0.1330635852372267
3,2022-04-04 00:00:00+00:00,1.5426770703856834,0.07457417650364219,0.04511495714163611,0.33080427507598775,-0.10988450380718634,-0.008000076385410799,0.1399895158554379,-0.06499890701852117,-0.04297597069156103,0.02327718622393212,0.08745055927398417,0.03818103873349604,-0.057910843980963085,0.008544001108173025,-0.07790422007658056,0.03904644624914244,0.14741538676420382,-0.07363272500595164,0.14970355673565489,-0.03823192707170194,0.12535057500212152
4,2022-04-14 00:00:00+00:00,1.5317120217254432,0.07956230897456541,0.044611184562702154,0.33476776928185165,-0.103499394640598,-0.012205635359839347,0.1643893153645316,-0.07099198232788183,-0.07555283699804892,0.02628866825989332,0.10122247849214187,0.045519469186112056,-0.07413111778182446,0.02149550979562333,-0.0734087359218895,0.07098003203695961,0.11753844690481499,-0.08736609992516786,0.12546537462071813,-0.027497443037703285,0.14733920859047747
5,2022-04-24 00:00:00+00:00,1.5259190448958242,0.07619361245587183,0.04867115914749254,0.33864269827160737,-0.10570943718128063,-0.01416789696792517,0.16315533280610256,-0.07628957666700123,-0.07759050145551417,0.012800597165477788,0.1252990605982059,0.04783043286005901,-0.07723791588051862,0.0300863597071091,-0.0686919953570059,0.07905708387118972,0.11217229132806894,-0.09966879928781798,0.1202060879029242,-0.031528635419118566,0.14802771285899144
6,2022-05-04 00:00:00+00:00,1.5321397191770947,0.07602830631595993,0.05201832231747667,0.33881518247353026,-0.13901106091215998,-0.012226601686274988,0.17982570220659982,-0.09180689607525026,-0.07426036100314169,-0.026973573604778932,0.14991389008534858,0.04987763129004741,-0.06067759426749008,0.019410923551981568,-0.047704437376599934,0.08076307609879878,0.12180042336273329,-0.0904592682386225,0.12529595854106823,-0.029362375281288003,0.12057379391496591
7,2022-05-14 00:00:00+00:00,1.5333812670245774,0.06992954568972916,0.06315988708633113,0.32181294670971056,-0.15011021370097677,-0.010856336707009662,0.1802939146225975,-0.08020324672571467,-0.08943548009354263,-0.027672329371251792,0.12530789035580678,0.07131964648475668,-0.04138593243413994,0.018796583935079502,-0.04564747528102944,0.043531734888804595,0.1552169839604066,-0.09872638649454858,0.12931421411203903,-0.015769224381247064,0.12672659340041004
8,2022-05-24 00:00:00+00:00,1.5293709030910119,0.046716514649039954,0.06320888913274016,0.3492009160164529,-0.10045213466412815,-0.0057488940872229685,0.1430916151493809,-0.07036659549331,-0.053800193642072024,-0.035466849197852646,0.13478463666133314,0.07058909309238981,-0.050689249368707716,0.001313023685929703,-0.04020661874015928,0.004036531082782987,0.1837502462445499,-0.07848470012312486,0.13706335975767228,-0.04252599378572665,0.08003966146500636
9,2022-06-03 00:00:00+00:00,1.5332232141298707,0.03534951362873665,0.0761316433251313,0.3462845992507981,-0.09603423942626763,-0.007552990117753411,0.17016958092695567,-0.08642784323722007,-0.062037716540979004,-0.01997408465124786,0.12282145578373141,0.07603398563290585,-0.049141184236059544,0.004347038486803324,-0.030780711591192306,-0.02349310377814566,0.21096294684079903,-0.1008453199685073,0.09541393320632593,-0.011875135578576682,0.09313892537739987
10,2022-06-13 00:00:00+00:00,1.5353957230620048,0.017605139068650688,0.07656627187241907,0.36230536839509603,-0.059510220226864634,-0.001527937724041636,0.10456933195875406,-0.04321836153792249,-0.021368856126085054,-0.04588897583463866,0.12648988532173733,0.07202131013988018,-0.034596431656277966,-0.004120743439471979,-0.03472974401460193,-0.06650858080846375,0.24894981585694292,-0.07326714219659859,0.1393831338722518,-0.07265802924673614,0.04858576047606438
11,2022-06-23 00:00:00+00:00,1.5300989269893557,0.022946355913885542,0.07211855029774808,0.36372771931052833,-0.037752534868046854,-0.004773440809570233,0.09989351708333274,-0.029019087660422178,-0.028295831201923832,-0.06589861078105409,0.1666569523669374,0.06355688615222892,-0.038685170824188174,-0.021079460821208748,-0.01805027996137341,-0.008032508806056342,0.19906058366390433,-0.08332253967807302,0.1146185312042104,-0.059164480071841004,0.04887256817547266
12,2022-07-03 00:00:00+00:00,1.5356809776062639,0.026266256179896096,0.0772119573095496,0.3317842529119108,-0.05938237006883215,-0.003933929982862348,0.11423879693913384,-0.021241902737743092,-0.045998676248095595,-0.08585137241169813,0.18163433862965883,0.07409322470028011,0.02011013336151805,-0.06387684318655634,-0.019684644064179784,-0.014489420890563107,0.20431411256620916,-0.06604046828313932,0.0845607972679974,-0.02436695085024022,0.041140340285144086
13,2022-07-13 00:00:00+00:00,1.5322671401347006,0.027336284029821176,0.0847256062449333,0.30935787282910815,-0.07735137657975058,-0.005263511449068247,0.11616388256021401,-0.03306969512706458,-0.024552011265871497,-0.09655463590011507,0.19646521655162796,0.052368190073424734,0.04165389176768622,-0.0652986264481565,-0.0313636560986012,-0.008534463860734464,0.20411151615619091,-0.0625911724878231,0.06867959412985283,-0.001865204771619617,0.042678773732125024
14,2022-07-23 00:00:00+00:00,1.5296984559658342,0.015130699327847046,0.09841517375677526,0.27949287635363257,-0.05821791132969936,-0.006355663923887998,0.0814036933138719,-0.01768562822088285,-0.028737523079631403,-0.0706925205646566,0.17755072003405137,0.06923434987826181,0.06674608505963264,-0.08706366729680458,-0.03544314486364573,-0.05059624814627812,0.24380861926380895,-0.07589851495676668,0.05274305399697738,0.026532474710404066,0.040989160369657884
15,2022-08-02 00:00:00+00:00,1.5288713147161683,0.020408509814161153,0.10295725325596966,0.25607024390048333,-0.06644883619219849,-0.009855374264156254,0.07669841213109599,-0.0060605487359726975,-0.03000891122171575,-0.07417345892153557,0.18437356863185556,0.06378817205083583,0.08303596884896003,-0.0955243126378733,-0.03306705021195319,-0.03551702383418391,0.2382524242429879,-0.08633630535215495,0.04412037918718783,0.042450656364415106,0.04282934893790528
16,2022-08-12 00:00:00+00:00,1.5301941956134018,0.008773586666440611,0.10009993281727474,0.25090493325077756,-0.03713367447769555,-0.004473934910281307,0.050976172614640776,0.007865601814127843,-0.01777564367991359,-0.05274714857099981,0.13237985337611624,0.09324676450137286,0.06520309143436688,-0.08230425253348757,-0.03233663537623678,-0.09153671024232793,0.2663317360774808,-0.0885292968139187,0.08550783141742527,0.022113258885318336,0.019299817715692186
17,2022-08-22 00:00:00+00:00,1.5227979380287757,0.008245491475171502,0.10129423974140321,0.2465370199800957,-0.037140980992590514,-0.004916788305963316,0.04075929319742357,0.015049573149426957,-0.04226847368079906,-0.08660601629697422,0.1639646076591414,0.12469910942095885,0.07521833147192594,-0.0857249879774199,-0.018526002468943408,-0.06732209681336905,0.24221298885016393,-0.10453809205787218,0.08303770640802385,0.0256839845911908,0.013837963074995735
18,2022-09-01 00:00:00+00:00,1.5193704002128445,0.00998267621801276,0.10390881374789682,0.23530669780637736,-0.058990165091126895,-0.004162177079879171,0.029829432567112967,0.03770554792348768,-0.04774948226866079,-0.08272745865650871,0.14859945496981733,0.12996083656350288,0.07843704206409985,-0.08250602396116878,-0.032788384777488896,-0.0582196064692636,0.22579327406468502,-0.10669631029477504,0.07957241242322885,0.04547843212042852,0.033130378994918934
19,2022-09-11 00:00:00+00:00,1.5102724598004673,0.033585498462915614,0.09667257862029967,0.2254490266435929,-0.07301904589074314,-0.009723305272505627,0.028185796041820425,0.07375302330465949,-0.04358493153171519,-0.08443200841172938,0.15903709028128155,0.09104762881289073,0.0837991359070172,-0.08510942358006614,-0.05930754753589991,-0.003950250080763242,0.18909270927238553,-0.08240365488737188,0.09555494837913517,0.031270147473953104,0.0441841927323248
20,2022-09-21 00:00:00+00:00,1.522657808045479,0.02886267435503102,0.0956598807797252,0.2218222568130484,-0.07036364683841739,-0.007264493744671792,0.024460827033524788,0.08096081206913217,-0.045635695333117315,-0.10099882915362737,0.16461521266001083,0.10683092704146496,0.12447656375046917,-0.11570331941471612,-0.06290021241476956,-0.03225102415339498,0.2065017739902052,-0.08337722427354217,0.09033883310731639,0.029508412978242644,0.04323130146757091
21,2022-10-01 00:00:00+00:00,1.5193707594599515,0.02420374051935725,0.09728682458011859,0.22344764626334532,-0.07822720097780497,-0.003476589783459867,0.015863931129205037,0.08161917030339719,-0.03418413500163611,-0.12385920719954181,0.1751127125319098,0.1172083437711695,0.13053865241197768,-0.12305757030310573,-0.053255047226104746,-0.034053388272557696,0.20838636309448547,-0.09427423339590957,0.09683016384127258,0.03133802724447566,0.0396652382052518
22,2022-10-11 00:00:00+00:00,1.522385658458021,0.024011866751271715,0.1026584986859283,0.22189876104578155,-0.07991947803138465,-0.006231237429095508,0.018376355067481396,0.08137307521997282,-0.0038736879672650743,-0.130788724777406,0.18427521293926846,0.10900914637412312,0.15316454583605515,-0.12996994786511115,-0.041397405379993875,-0.04674924658864613,0.22941750062500577,-0.13661429275430398,0.09355397928614023,0.02670173415523771,0.0413524022318778
23,2022-10-21 00:00:00+00:00,1.5223718988930786,0.016944127699910494,0.10996851779576808,0.20642812840939603,-0.07097433169197248,-0.006827112886140652,0.007956962428926467,0.08274415940183281,0.012601813711223679,-0.13344284559664976,0.17334930010974092,0.0959299197308797,0.16170861398204286,-0.1213552864942911,-0.051033087282671495,-0.06246958393610963,0.24414244224099657,-0.1322254311893813,0.08885732464560862,0.03473888036753095,0.03850636831278047
24,2022-10-31 00:00:00+00:00,1.5328723553009251,0.018461450006802136,0.10265650340867166,0.21129576619336185,-0.08455494501574976,-0.0016244063803723696,0.025580539079550105,0.08371769182957119,-0.010562836383100111,-0.18050800770021289,0.1824887120711309,0.127670418748738,0.17980370143446342,-0.1280851450067036,-0.03122206596260003,-0.060017834948017455,0.22578760854625485,-0.12456904489109556,0.10325147954305866,0.02856697598422605,0.02439135963915042
25,2022-11-10 00:00:00+00:00,1.5152640346351194,0.024679327851307806,0.07875428106196193,0.20183977844968232,-0.06571863222739872,0.007390937136293014,0.06000373167748515,0.03357032989238921,-0.04549094682340855,-0.1857597530237197,0.19910255241110036,0.1368765495703591,0.23739343097697452,-0.21011908560175013,-0.07257460555803046,-0.0680702274756661,0.20206997833584153,-0.043551404506548846,0.05904032864928911,0.07103574058450239,0.037106220153252274
26,2022-11-20 00:00:00+00:00,1.528197592512588,0.017974088514392115,0.08002172109625219,0.20936832077443193,-0.0655616545549599,0.009327009825080532,0.06513655673510117,0.014592208909998261,-0.023717724561578515,-0.20487890139223305,0.20697371639563913,0.1298164666221394,0.2621505278373966,-0.22125667424678253,-0.0690927949997608,-0.11293140438968852,0.24326123158558738,-0.04360583470299777,0.07770243025607655,0.048915763562435884,0.026315692748621843
27,2022-11-30 00:00:00+00:00,1.5279939196885635,0.026023184623317874,0.073068805956366,0.21359697584786844,-0.07557343978215343,0.011055076816739139,0.09024430212222435,-0.01224731566496729,-0.0010301633649141264,-0.192985806803955,0.20653434847741722,0.11166611711580696,0.28570169889564007,-0.23678372384524674,-0.06268510527578855,-0.12710923458404383,0.25471438218873504,-0.04163447134808051,0.07118465731089066,0.046267352177280376,0.022342249909710538
28,2022-12-10 00:00:00+00:00,1.5192577155652678,0.03304551436267686,0.07095765422379594,0.22205973613384855,-0.08429060327563724,0.009290665318224952,0.08972352346028709,-0.009609645857770965,-0.01007261598818924,-0.17342084323199436,0.2051476024464327,0.12104129948688153,0.30285214407030275,-0.26012176440090023,-0.0628667789547952,-0.12942446129806276,0.2624394368343876,-0.060285207080740436,0.06465722053056068,0.05244785272167085,0.03576510406333146
29,2022-12-20 00:00:00+00:00,1.5123066903561795,0.03255740280029537,0.075223047132695,0.20461047772523488,-0.0987658807768216,0.010922840617599147,0.07482991588226418,0.002574000930027115,0.011274563639616276,-0.1620909529804819,0.17854978024934837,0.11668124441263476,0.3129479349374139,-0.26838385051583186,-0.060590670330281864,-0.13347870271888876,0.26574241489819284,-0.06734875797521037,0.05836982815854139,0.08312062673765885,0.030295016706128435
30,2022-12-30 00:00:00+00:00,1.497820981366482,0.029239790185868846,0.07740908282284056,0.19307063085298093,-0.09038897992109052,0.01110218781768281,0.07530849664377184,-0.00016195482318110915,-0.006951364620502824,-0.1581133910364704,0.17316369056049655,0.12068270412997038,0.3055390945538529,-0.25662417780181374,-0.06826176375894807,-0.12096548424487698,0.24008086408637133,-0.05870423036498384,0.03550243227448087,0.11188585638603564,0.04438939053788038
31,2023-01-09 00:00:00+00:00,1.4959406804577744,0.03309594954821705,0.07401328291625181,0.19172344449898868,-0.07945614614063914,0.009108848064844589,0.05469314331425986,0.030613999880680504,-0.025258458771438914,-0.12801675377576152,0.134147960232629,0.1384406322170813,0.3177496591940767,-0.2702045156831805,-0.07364834590187093,-0.15153482684684244,0.2618185739255208,-0.056675745146416386,0.060578721743570124,0.10069953661159807,0.03639531510701535
32,2023-01-19 00:00:00+00:00,1.5031225021054524,0.02854854730857184,0.07310546111991828,0.18257819708845202,-0.05170206727628211,0.007960673477937557,0.025434539705884673,0.02839904278451256,-0.030568817851987336,-0.14344433029897255,0.12069112883837943,0.13934212795443315,0.3112246157807749,-0.21007296870035533,-0.08466352525003867,-0.15867379007111632,0.25299351692896044,-0.03318163248549772,0.09380240422790179,0.062434291626297704,0.016979031041351962
33,2023-01-29 00:00:00+00:00,1.5117832666063074,0.016905078460555015,0.07800720339193164,0.17937097311265496,-0.029281476728778254,0.007367308538472214,0.0253561051686687,-0.0035412210582786547,-0.006583558982012367,-0.17007796369096054,0.13086669942793588,0.1295376409776545,0.2966676539324903,-0.16256122063592107,-0.07928636420185443,-0.16291091834716057,0.2556398627454599,-0.0422080539840171,0.09615947756064035,0.04418857302849971,0.003824709388212701
34,2023-02-08 00:00:00+00:00,1.5132705810367482,0.004738990699750791,0.08036275037918662,0.19166466456413486,-0.018132257009757496,0.009059254972845227,0.02152815383975141,-0.012662455034113847,-0.0011562442158176065,-0.19326854247297712,0.136833146455074,0.14908886609968966,0.2612211969835823,-0.1312018301673884,-0.05327511387934125,-0.1671881206990556,0.2551543864400082,-0.06933055978532747,0.11650009731064152,0.024466565026709193,-0.009389284753772658
35,2023-02-18 00:00:00+00:00,1.4997838202872138,0.010089866259843906,0.07308583384436942,0.18894674214781101,0.008261506353331439,0.0067989228520148465,-0.008268788141203406,0.0020830844944054764,-0.019292000219723666,-0.17976994000581117,0.123667118511907,0.1573215617531064,0.2797086368560174,-0.12349038855963375,-0.06942784089263522,-0.17235222161166813,0.2414856720418806,-0.06737053793079756,0.13225171378426875,0.00816870929121757,0.0030823891386107913
36,2023-02-28 00:00:00+00:00,1.5058298068078904,0.04225160047439865,0.05114501082994863,0.2048570665978168,-0.03539909749109554,0.011318046378374235,0.022320589204988153,-0.00799372134271808,0.027826712782496398,-0.174142565798428,0.11390468490592746,0.12235222142644922,0.3173780748633971,-0.13854893226614656,-0.0626565402792533,-0.13134267040809094,0.213894559552918,-0.06531574070155925,0.13299366656158992,-0.007110518807936039,0.004433448645849633
37,2023-03-10 00:00:00+00:00,1.5052690042137928,0.03663945664627606,0.05528928937555255,0.20402477753681647,-0.017219588150758122,0.00959235856273781,0.03518969699748156,-0.03723073928369642,0.048222139388567516,-0.19184852890375362,0.1360356487838918,0.12478583757066776,0.3067912771544131,-0.12440649657149029,-0.05997089377398535,-0.12435229971007497,0.22176457483660036,-0.09528636806245581,0.12225132394829923,-0.012960361885654376,0.002726066559154775
38,2023-03-20 00:00:00+00:00,1.5018683689890162,0.04064667326797757,0.049527657827145875,0.20205319694452042,-0.007408565014845229,0.01015958080281915,0.040119702722958756,-0.04735230301723499,0.032740722452444554,-0.19880921317391567,0.12889023923043108,0.12651031064980192,0.298668186058723,-0.09816422863072663,-0.06082614498283794,-0.11573791322803378,0.20022990137860483,-0.07658733591728979,0.13665383526266148,-0.0219959502657032,-0.0002806064700298103
39,2023-03-30 00:00:00+00:00,1.501796606495056,0.035514806427649356,0.059884253691322914,0.1998223638292017,-0.013948297942765997,0.007239673481753375,0.03604374285617623,-0.06526460053636053,0.025147898229639733,-0.18757229218231594,0.1404259664837411,0.12270630535267474,0.30106568377056075,-0.09204217872255166,-0.0641221960788143,-0.10799583795568113,0.19138855005666902,-0.08743367407350848,0.10034696382724323,0.018200348156158324,0.01563422073494214
40,2023-04-09 00:00:00+00:00,1.5052832289575069,0.03332442230901458,0.0614042569093829,0.19758377838044006,-0.011218620773660957,0.006583185926029675,0.036690908785110325,-0.06559466421972682,0.026044024745633897,-0.17389021808165323,0.1321140541597853,0.1213621395857703,0.28664230615240394,-0.08686503036509773,-0.06106709543425402,-0.1085425574592788,0.19276661795683223,-0.09380113357861135,0.09467622961815068,0.023454809842213306,0.018091159766674598
41,2023-04-19 00:00:00+00:00,1.5161087580897323,0.03212131595171447,0.06073794362534173,0.19838303043885852,-0.007373982027307304,0.00433251850662083,0.0632048421087679,-0.043060533501064056,-0.03540347600897751,-0.14875643527053084,0.09363086591718796,0.16214332409395998,0.2874004471120381,-0.09645844437109247,-0.07010739525280686,-0.14372161310326298,0.20575933672496308,-0.08169828584599251,0.0898274177308134,0.031496351280575235,0.022466109097377788
42,2023-04-29 00:00:00+00:00,1.524482420313951,0.03201814726989523,0.058144854868396025,0.19504838024677912,0.009002874215333577,0.003974278830995302,0.0464967555035054,-0.01192862212439512,-0.05300413776264174,-0.14851299213639463,0.0891480948353677,0.16786285593468264,0.3321995710176095,-0.1376901803040227,-0.09439609242753753,-0.17709009248073002,0.23332998252746062,-0.04856827606937039,0.09678164765751719,0.016180336148663137,0.015840259975511816
43,2023-05-09 00:00:00+00:00,1.529051131769974,0.03088537991267441,0.060117864829480706,0.1961766255263113,0.0040971597250186375,0.0026214716861731276,0.04292841126681408,-0.005654891259569938,-0.061242436635227264,-0.1305992210150436,0.07125073781641908,0.1763527597996967,0.30853402970433497,-0.12479111828186437,-0.08957091294872926,-0.18950061829624268,0.25114433134137215,-0.05889299409436629,0.11678118452555093,0.0016483998458610828,0.016628776849534736
44,2023-05-19 00:00:00+00:00,1.530643100907009,0.03817974771419099,0.05810984157102998,0.17973611998036362,-0.005325106583145295,0.001885896853373675,0.02639445624237838,0.008010297455118087,-0.039599035560864304,-0.10771127845307789,0.05517119126354024,0.1510940826071477,0.2998443558925517,-0.12960500688895213,-0.0776489272983416,-0.16927399042891206,0.2449777200269627,-0.052597605766302444,0.1181309330768594,0.009427555961260402,0.0003961892410956688
45,2023-05-29 00:00:00+00:00,1.5411176113857754,0.03225335142457054,0.05970730856999667,0.18282818542493307,0.003621346381448413,0.002328576829443988,0.019322553061025094,0.005529888530532364,-0.04092829557378821,-0.10441321566882324,0.054878689816772484,0.16178115803332171,0.28568936079217006,-0.11653044807064018,-0.07474574057619088,-0.17571309806535487,0.2435284176282668,-0.06420178743319928,0.1208068244291562,0.005786922016654758,0.002279406341573452
46,2023-06-08 00:00:00+00:00,1.5551389960314463,0.0481682402997624,0.04641543490433991,0.2220427283845356,-0.012060837037876379,0.0012696550626803513,0.09855775659442491,-0.029784216597046713,-0.06582554212376698,-0.1600566852544504,0.09159425315761674,0.15153215207868728,0.3602757777483459,-0.1694359315787944,-0.07654122325255956,-0.20362475007512523,0.28321087976760173,-0.04079768676646532,0.1303158431353745,-0.034971872466637126,0.012857247337905418
47,2023-06-18 00:00:00+00:00,1.5579274126205593,0.04380280363564936,0.043939131909837316,0.2203951140643302,0.01056168045027352,0.0006059242025162598,0.10338307728882895,-0.033458603138944006,-0.09151389813737502,-0.1598817108066669,0.0794438437169263,0.16154329775157608,0.3313075536385959,-0.13616529607323055,-0.078112551435902,-0.2293114491922538,0.30797632630715793,-0.027855273546328208,0.16960650002102134,-0.08833227031502071,0.013277192040030245
48,2023-06-28 00:00:00+00:00,1.553485935213116,0.06171594929885326,0.03125862568389641,0.22538610842349344,-0.000984652083867002,0.0009537696276891767,0.14418674044536564,-0.053850321558628,-0.11731579194681245,-0.1869510577862238,0.09456684940540713,0.16540167704253697,0.3721010393669792,-0.15622139425992182,-0.07955721593661687,-0.20881370202312968,0.29356424597240754,-0.006985068782373507,0.16375470265432135,-0.09459695594793781,0.016776809448101712
49,2023-07-08 00:00:00+00:00,1.5686210658416153,0.04629606208664675,0.03875138634930608,0.23313416805738185,0.011426084051751126,0.0030460779868407713,0.1414919993544603,-0.06824230204557229,-0.07877524929159728,-0.21074285770745688,0.11738967293825703,0.17282612065276906,0.36694985350814885,-0.17118576289942106,-0.06372004163897763,-0.22268053719440462,0.3307257424345312,-0.05147464436309668,0.15449357475488873,-0.10285364944232449,0.01171280999512488
50,2023-07-18 00:00:00+00:00,1.5743463420599688,0.041113824383777,0.037851150087796805,0.23993971932925112,0.02915338903951312,0.0032219821745600383,0.13304569052882242,-0.054081132919180645,-0.09916442305579772,-0.20686558403820385,0.10872170524309695,0.18019579163359592,0.37095510170996393,-0.16083816561230413,-0.07247235213658931,-0.231153328317687,0.3100244064072007,-0.02521662359840592,0.1450471291109152,-0.09642149497532765,0.003354727368956559
51,2023-07-28 00:00:00+00:00,1.5935156777321768,0.03218993921820911,0.045989916287580736,0.24879576321622768,0.025397588396014577,0.0003312344497901961,0.12972773718280237,-0.06189919634386597,-0.09902602648513109,-0.1704316260738269,0.08983411818450014,0.166625170976747,0.3382968742543587,-0.1322303349993741,-0.055729633822910685,-0.2493639174438437,0.3282465965828438,-0.03315468198703107,0.1368060766559925,-0.09600784940565148,0.0007011335960797902
52,2023-08-07 00:00:00+00:00,1.6026004613160572,0.028787892934616612,0.0468419239778504,0.2482176893363357,0.03190307948464404,0.0010521417038085166,0.12784215640260502,-0.053327872056883746,-0.10773936738862827,-0.1501123049685138,0.08269271460558068,0.16709656538209178,0.3386499308689483,-0.14105678987518608,-0.05622359280447267,-0.2498876024004533,0.3102892314532785,-0.020200508156140256,0.10851190376267301,-0.0663526671099135,-0.0013528482614847382
53,2023-08-17 00:00:00+00:00,1.6136987175040998,0.018748323392786554,0.05345291792042509,0.2588244012183217,0.025926317154242345,0.002169210140823729,0.12243336603910568,-0.044735527219233934,-0.10739053238537094,-0.16849056450507635,0.11409381349671231,0.16523520818559623,0.3530269429977311,-0.17508165587269287,-0.06431288745742471,-0.26285198554324496,0.3262670653843503,-0.025446133348077046,0.09510887385347155,-0.05895331481943079,0.019963745683979732
54,2023-08-27 00:00:00+00:00,1.6327875094005329,0.0392002034340579,0.0386894615118899,0.3003241827898372,-0.002531903644321332,-0.0009677193766187839,0.15729428078507243,-0.06592595592893026,-0.10890608809321096,-0.19959162166209063,0.1438431847289916,0.15393570414544563,0.42313061154569137,-0.21808099868453412,-0.05550730395559417,-0.26051983158659275,0.3484145451476354,-0.05588329682932551,0.09878070613137277,-0.09930922991417136,0.050186820683219814
55,2023-09-06 00:00:00+00:00,1.6273348383268638,0.033832447118548936,0.04788786273604043,0.2986208872151611,-0.013682791062212107,-0.0007309785053965726,0.14107391240303171,-0.055899086387555225,-0.1074913774745451,-0.18988077529183228,0.15332627207761554,0.1432724415093527,0.4469099721481858,-0.25388919004263777,-0.07040226333913718,-0.26519196529162153,0.36133578269871447,-0.050691406444386945,0.06544136527883435,-0.0628202212170455,0.07035847024375928
56,2023-09-16 00:00:00+00:00,1.6297967753023077,0.036062306678262615,0.04857314506616959,0.2920359350935895,-0.020392649417611458,-0.0016441072998436383,0.13879539856646586,-0.05488582618015503,-0.10464725964448761,-0.16626553317437176,0.14189302594020006,0.1378982562566817,0.4490428758628578,-0.2583977025675422,-0.06806883049978861,-0.26662317712910594,0.36682209541659333,-0.04853143071087017,0.053381336370066756,-0.05402684127071232,0.06445067506523311
57,2023-09-26 00:00:00+00:00,1.6574627278685226,0.03193610510984093,0.05110023851438495,0.31715962002670905,-0.022499693798326916,-0.001963191315949627,0.1369201916894295,-0.05258821736776411,-0.1280918999747502,-0.11591150946568082,0.11370637069106149,0.13375315591319145,0.41304988005599347,-0.21238438764611936,-0.07775365615412026,-0.2723997258511835,0.3520023550733504,-0.0234962408977061,0.03707024383402736,-0.05329583681506238,0.0743363835079896
58,2023-10-06 00:00:00+00:00,1.6398926444669026,0.0318980042959615,0.05202730035519949,0.29743652173062723,-0.016720762398380967,-0.0026338512869331734,0.1170536659633498,-0.02736249585877119,-0.13339359065875664,-0.12619995997231184,0.12581717464042935,0.11935250263650536,0.4305956968657878,-0.24202754779510843,-0.08444943595871625,-0.26448987597525075,0.3202657028967101,0.008554391342489136,0.033913305409210975,-0.014968458540941082,0.06225910434527082
59,2023-10-16 00:00:00+00:00,1.639586365766053,0.019225889378406618,0.05540333132016319,0.2873636379132273,0.009045230626822366,-0.0021725111977918187,0.13175690873809312,-0.037257503782710734,-0.13442097905303196,-0.15359845609078548,0.13397389389044154,0.1341905304986439,0.4050091865644683,-0.23242972572607676,-0.0721932427922051,-0.2787925508050423,0.32316833802774586,0.0011894532620133071,0.04537602828509244,-0.015723311916636156,0.044850041055823214
60,2023-10-26 00:00:00+00:00,1.6256496378906504,0.039541711663215594,0.037190826284077896,0.3045241823365066,0.002971634337292784,-0.0028811123849716734,0.16209576943216705,-0.05131630765863466,-0.12886087868059715,-0.1953305658672617,0.16255411981983903,0.11447766423741161,0.45765477841178737,-0.28489166155059176,-0.056422989275398294,-0.2576360637010186,0.3141343393703907,-0.014360517642414212,0.056078834465238175,-0.029789276004153688,0.06456843699876302
61,2023-11-05 00:00:00+00:00,1.5997002378491227,0.033705117611991374,0.04468682510672489,0.2930107459658259,-0.007915810543554945,-0.0030196754607631575,0.15419423659635284,-0.04615357812111581,-0.1433233010631813,-0.23032291289652515,0.2193776975586431,0.12055828485130034,0.49387618832857366,-0.3291671992433877,-0.07063104605096003,-0.28583347407672727,0.32993418230063204,-0.005478203943003825,0.07052421643462924,-0.02687135159910572,0.0755505978210021
62,2023-11-15 00:00:00+00:00,1.595851148963891,0.02805478885212205,0.04958121567273849,0.2749529395032929,-0.006826061939484827,-0.001430666615440807,0.15423068696756803,-0.042958291480804295,-0.12165050755893665,-0.21648426057987621,0.21146292710255898,0.12112232083648543,0.5038696869462954,-0.3290123969854615,-0.09436201953030497,-0.27993222018533476,0.3339125393340621,-0.02101503496996092,0.02201936135592447,-0.011135028734624155,0.09731678482545919
63,2023-11-25 00:00:00+00:00,1.5933582881912705,0.037434161987730495,0.043012060854638476,0.29140159494836987,-0.022304349201773866,-0.004057706663470073,0.20081078061972144,-0.06942918062029346,-0.14157549934135044,-0.24695632030236747,0.242688352622947,0.13684328759273304,0.5517726993574528,-0.35895208513612215,-0.08957745165568279,-0.2922091788765179,0.3562003114326476,-0.04724119955119185,0.01695158130736223,-0.03468004855839518,0.11635517019676259
64,2023-12-05 00:00:00+00:00,1.5766750598524264,0.062322671045460694,0.021933530486721767,0.3078043882066123,-0.03346263044067873,-0.004947339492273765,0.28533864507497964,-0.12769699758957428,-0.16210394671151548,-0.3385697900305251,0.3197158385915032,0.13587283230420866,0.6461759185509122,-0.41699777494513685,-0.08930659764576107,-0.28157492380257537,0.33701972354904836,-0.05104924307585223,0.02169676578895723,-0.0508175355246564,0.1424057189193016
65,2023-12-15 00:00:00+00:00,1.5648202051500129,0.06979487326835568,0.008468814722330457,0.30867091604580277,-0.010808879015556825,-0.005382002107784932,0.3165018940604113,-0.15555327877342043,-0.14579900578439986,-0.3686059069974507,0.34866805440668436,0.10400128426952408,0.6754256265802285,-0.453197829666522,-0.06397817199405713,-0.2870945375363119,0.3270834708932175,-0.054158675316492835,0.030603914772651883,-0.05496715568955209,0.1419402389568256
66,2023-12-25 00:00:00+00:00,1.5534285535290104,0.06335576652154544,0.014244685478083887,0.2760080682615316,-0.0018503160569972891,-0.005846292363326406,0.30447337986932077,-0.15429817845366808,-0.13477446080905062,-0.35275493484978504,0.34338453797471497,0.09185859041397086,0.6447740228684818,-0.44256443548430746,-0.04981088253611863,-0.2897125055898682,0.33123702392572696,-0.042498161795596574,0.03528433870310787,-0.04705964786339854,0.11451058631892709
67,2024-01-04 00:00:00+00:00,1.5082582524972117,0.0705605489625176,0.00542270593874325,0.19749181503332666,0.025516281820106144,-0.001828269804562188,0.2739551519518933,-0.11391408950072086,-0.13408325411941885,-0.3504387479986965,0.32792574773269767,0.08640697428279177,0.6084882105607538,-0.39087318217477324,-0.05176241785044823,-0.18210784772253044,0.17597663183359516,0.04642255017700949,-0.011004947836045501,0.023193023804303742,0.032539578710978165
68,2024-01-14 00:00:00+00:00,1.5072921169015108,0.0640673942387406,0.010106260996750613,0.16065615718187018,0.037676291297103405,0.0010385003937342352,0.287554259888529,-0.12903361589671583,-0.10546288678178047,-0.37132599747069384,0.32885266560472604,0.08321750997800462,0.5838645908218896,-0.3577176986090552,-0.05219462824040833,-0.1449944467231554,0.13121872460539352,0.06375817836032346,-0.04414832055697854,0.06321317437562736,-0.004732853975080188
69,2024-01-24 00:00:00+00:00,1.5010621418143246,0.05713871912536849,0.01221344038193315,0.15254514796510552,0.04198907893584212,0.001083053526252126,0.285348709145831,-0.10753329755586218,-0.12244999006532734,-0.3636070057731324,0.32084934413814803,0.09470509883099221,0.5626614667487254,-0.355755694726425,-0.04644746761096514,-0.15685417512128197,0.1205445955332603,0.07097845810489309,-0.039174791499614246,0.07167615190240031,-0.012771739198731341
70,2024-02-03 00:00:00+00:00,1.5224086465413005,0.06875037979394072,-0.0065007179839081265,0.18182701449306135,0.048187501813436055,0.0025773316352833793,0.33557122784638815,-0.15001766169731723,-0.10833671158718752,-0.4013233563532016,0.36587750375687844,0.06217856142988027,0.5854581275408136,-0.3556323493597099,-0.03472600255445733,-0.14588868921935855,0.08923709392789285,0.07847523242707297,-0.03554144884370137,0.0358165810977082,-0.0009162368738068761
71,2024-02-13 00:00:00+00:00,1.5200032488260558,0.06863633589069734,-0.0051386218144333995,0.15363544493008602,0.045583529395130294,0.007337161689911316,0.3424600517379246,-0.15262165875264572,-0.07360720827913218,-0.4125006691170404,0.36297532663644866,0.07527450506977632,0.583528178426931,-0.3512357615957651,-0.050031649027162575,-0.12727210399803274,0.06969277730444609,0.07366458715210061,-0.0507450133035345,0.060409735239839966,-0.01603684131109275
72,2024-02-23 00:00:00+00:00,1.5308979765857094,0.06302132509246364,-0.0009728644179837626,0.14552853203081484,0.054541988702902444,0.010984508437069256,0.32287250193925887,-0.14308082623033955,-0.040737839721902744,-0.3886672947100956,0.3401664739145558,0.07598212160704136,0.5679669106222901,-0.33385751227171956,-0.07171126844849991,-0.12033868749850941,0.06492951189383292,0.07435559741840077,-0.0707172406779851,0.07403159185571373,-0.019658148877282636
73,2024-03-04 00:00:00+00:00,1.5388923220948623,0.05370818105839326,0.004285550657922159,0.15600963257072992,0.06426965317125452,0.011397373416710955,0.2999262447177126,-0.12335496505982586,-0.03473615298885805,-0.34110281762446387,0.3181786649975027,0.0656031778960897,0.5730951352358482,-0.3394331468412821,-0.09075699121487975,-0.1405970673498734,0.07116869598800848,0.07594553877924116,-0.11047161063633018,0.09404088667389336,0.003710654530644857
74,2024-03-14 00:00:00+00:00,1.5525952769095601,0.049611558017852345,0.007606911857703414,0.1483303609558136,0.07009409805083813,0.010692476303522273,0.28608157289559477,-0.11303555554868075,-0.015387442480405742,-0.33580333009391894,0.30166477729816793,0.056800208706244616,0.5530797804484385,-0.331122523624607,-0.08254186058010259,-0.12244456179118783,0.06384231505091378,0.07093511143211641,-0.12153984683571538,0.11073666964582769,-0.013214419415431904
75,2024-03-24 00:00:00+00:00,1.5633374843603205,0.04889385010572683,0.02927740179019641,0.14653623855075093,0.04730152853403655,0.00457512266032905,0.1886276846883011,-0.040802273721657796,0.05389468380232974,-0.1968529470524942,0.1512587770733061,-0.00019555624886182475,0.5377590708850932,-0.335779096266978,-0.10228253885665559,-0.11298428871845267,0.11379386685115205,0.037014543583309814,-0.1752643094373736,0.20217570780667804,0.005213741605962575
76,2024-04-03 00:00:00+00:00,1.5703292996809535,0.0392725145465809,0.04237216854715263,0.14625910092892908,0.05084819988782936,0.00030261725744839104,0.13361727454183694,-0.020286380529446507,0.08875588055354201,-0.09698447523801391,0.08029945629931776,-0.06202504486192486,0.5193507117287167,-0.2869034549909392,-0.13559279003476243,-0.15665565061726833,0.1359187238294596,0.04646859454396948,-0.1899387099257807,0.21726993287840451,0.03926938821190385
77,2024-04-13 00:00:00+00:00,1.5831195508199658,0.039762518916028264,0.04835343039999195,0.14050959139490432,0.024021903043410935,0.0005444353457395773,0.12279552384204005,-0.011871633449258484,0.08856045758154166,-0.019257019696323444,0.036441625851182304,-0.07848390536728769,0.5209095310549582,-0.28663841247171634,-0.13147575949778145,-0.18417095462355704,0.14260388681289318,0.06460141011686897,-0.21913242401411281,0.2576446538849042,0.03552095549188599
78,2024-04-23 00:00:00+00:00,1.6166638900926198,0.04349462139431514,0.05257250905075514,0.14722456172392187,-0.003875811722586478,0.0003797926257952849,0.13019203293866366,-0.025987457108297855,0.1345175387933812,0.0247533900609245,0.019883297222626713,-0.1198212883044179,0.4875021184398434,-0.26118259618473794,-0.1341876944809423,-0.1762754626956002,0.14727956454224062,0.057817018178682504,-0.22753741740603117,0.26452309144199165,0.04269427784060024
79,2024-05-03 00:00:00+00:00,1.6284336060161062,0.04029074268875451,0.05952409247252555,0.16032256123460342,-0.0192514126417621,0.0002748017323147636,0.12231782948008083,-0.021170247389837592,0.1321609732067555,0.05315834870669319,0.012156466310978551,-0.12112483923022221,0.4901602393938648,-0.26864589346303797,-0.13816875771321224,-0.17080708792089147,0.15513917857473833,0.054094748298546144,-0.2673491049727038,0.2888931156145184,0.054891347217566076
80,2024-05-13 00:00:00+00:00,1.6139195525049643,0.037187139749812664,0.06692272980059821,0.15437832824345313,-0.035257565648891764,-0.0003189542930737835,0.09764528595073779,-0.0018483185195274526,0.1257122230919485,0.08107054369030837,0.0020114460035048445,-0.12364621012946474,0.48772200816070316,-0.2751584694351674,-0.1410430488989838,-0.1886257320201955,0.17022912215566427,0.060539025343298136,-0.26238584770093637,0.2988310793882441,0.05759681209570728
81,2024-05-23 00:00:00+00:00,1.6020029383749554,0.05241783208773755,0.05452876017024392,0.15468207209862098,-0.04126653091179902,0.00028369398352613375,0.12898430052435828,-0.024768139202754953,0.08535648362161188,0.0377053003735965,0.028864388000491605,-0.10884902482610648,0.48644623710395674,-0.259802307056443,-0.1373913054602038,-0.13877164873695247,0.132305976329743,0.07561749223386026,-0.2500647608735735,0.27762291907552894,0.06851624540379825
82,2024-06-02 00:00:00+00:00,1.6007779621608533,0.04554629581637704,0.057134789075675846,0.15734067604730329,-0.030264515158853453,0.00027960694755827263,0.11509198994573637,-0.013186796618910297,0.07511202494825878,0.05911779395937861,0.020005041599612805,-0.11905950228877271,0.4756818427082138,-0.2547627189355221,-0.1417723737017724,-0.1530991073226351,0.1386951311569383,0.09541178429677186,-0.2560367644936389,0.27411117833257903,0.0734001593081258
83,2024-06-12 00:00:00+00:00,1.5992906747648061,0.04299565710275035,0.05285439465901993,0.1490330647743202,-0.007992218385776342,0.0005053094899534819,0.09193801906882484,0.0015019758148878105,0.08166639356082642,0.07783753307263183,-0.0002140047741889441,-0.13781039607936,0.44058169247975715,-0.24058001223759087,-0.1293517568223978,-0.16110731781654325,0.1372198092429536,0.10193327429913968,-0.22197157977136883,0.2543092207231294,0.07112631358914034
84,2024-06-22 00:00:00+00:00,1.6103882728276757,0.043189187715849016,0.0538076695514751,0.13846312973966535,-0.011606511336986727,0.0004685594697187241,0.1022364455560531,-0.003446621864434733,0.09483407847488885,0.0590389744671213,-0.003926809836847176,-0.12417315200100548,0.43604792911953255,-0.24260659092680795,-0.12102365810468153,-0.17101868119115632,0.15295046171310328,0.08176873240528265,-0.19586370764281405,0.24895661565940921,0.05501967730345862
85,2024-07-02 00:00:00+00:00,1.5699890612252358,0.07940563279812354,0.028374752429413095,0.1318932796592864,-0.01747385236719887,-0.0012897902440246435,0.17501870631017624,-0.04161895592210377,0.039520399141436686,-0.06976993011035879,0.07206145612130134,-0.08411102303154537,0.4942567628172608,-0.2905608625255175,-0.09958148851446952,-0.061076829515249516,0.08797813194205685,0.08672884192484512,-0.1915516337727695,0.24466317912955743,0.036446593770784005
86,2024-07-12 00:00:00+00:00,1.5697397249007219,0.07796955716402588,0.03134112852568678,0.12318452077124718,-0.029847661675644083,-0.00040574600099439013,0.14013191307925776,-0.021824020827353848,0.0216238315217733,-0.005813117285978708,0.051265855245266674,-0.09414072520525472,0.4789645023879457,-0.27953725404357616,-0.10360068068038368,-0.07244951246858623,0.07736198096413621,0.10820889641533966,-0.20080506201249687,0.25825410531299386,0.05232661802341972
87,2024-07-22 00:00:00+00:00,1.5736105015987516,0.07627241004868199,0.03900686865365312,0.12903503325826096,-0.04725447201703536,-0.00184628978519822,0.1587748219690433,-0.03773376562771076,0.010122372217587267,-0.03178374065953466,0.062397133655513096,-0.09544066436865856,0.46650102388474624,-0.27367695645767803,-0.09805740086182385,-0.06111103169490184,0.09811977315211334,0.11811884505239392,-0.19794366671683641,0.25807289157809526,0.043444405966352684
88,2024-08-01 00:00:00+00:00,1.579071974472531,0.06980948952027743,0.04983674795702878,0.12797099217246455,-0.06267440973152794,-0.0032045059619284625,0.14085165942877984,-0.033677377163581455,0.020265326475511367,0.02209852034923514,0.04227261447135144,-0.11004840958138114,0.44981049628549,-0.24776321297394674,-0.11748718074028851,-0.09966428787035563,0.12658340791531883,0.12113124044169196,-0.19451371802705242,0.25247498307448973,0.057011211548187626
89,2024-08-11 00:00:00+00:00,1.5784985739610546,0.061737301664494044,0.05968668005935814,0.13527187840676783,-0.07651101113930556,-0.003929762176892922,0.12133738629263127,-0.019886494411422446,0.020681890866750006,0.05819134188968966,0.0315129459888239,-0.12435211543534881,0.46352108358191807,-0.26737799420706443,-0.11463331151716874,-0.11695130222947923,0.14188275257411787,0.12755004854265342,-0.23393058516285922,0.28649055236476734,0.06059670202431887
90,2024-08-21 00:00:00+00:00,1.5951090040364548,0.06393264114098367,0.061134786796873286,0.15005753058188465,-0.09118657449862516,-0.004447555808151748,0.10059513587073012,-0.007104380155596451,0.033173441331263015,0.11018938666453663,0.0064421616914269635,-0.15521168185047246,0.45748411927417676,-0.2659015117581603,-0.10593597518223498,-0.10171184220223616,0.1295746712655387,0.13900428895534636,-0.2699550480593368,0.31353667736073465,0.06017844477830943
91,2024-08-31 00:00:00+00:00,1.6034265267876575,0.05564659229720445,0.062430424157947605,0.15609383153409714,-0.07540847896048691,-0.0031835848074154185,0.08991012285542338,-0.0038502141250675694,0.011563057274812286,0.12918281474602736,-0.0035259425056251596,-0.15199882394964953,0.4486036457726374,-0.2590711883875204,-0.10045948411549213,-0.10197892820847698,0.12040599191521884,0.15379114553375364,-0.29920111131282723,0.32644851263337366,0.06519883158705646
92,2024-09-10 00:00:00+00:00,1.6053716322544833,0.062488514647496884,0.06372086764451747,0.15368750404166662,-0.0955520312944705,-0.0019597696225165094,0.07505798249558009,-0.003972285880533803,0.030483002893820575,0.18112088527312445,-0.023544854123620566,-0.18367039677021177,0.4723613069774759,-0.2542135460914244,-0.13042975478804528,-0.11219934995382973,0.11541264258029695,0.17433632875811056,-0.32220436050490875,0.3466558800761423,0.09063056653817718
93,2024-09-20 00:00:00+00:00,1.6064862485426499,0.07174884753716718,0.0619954677747147,0.1415917154220304,-0.1141496159200222,-0.0003501016070286596,0.10046840541008205,-0.023848232193905396,0.010810773122072528,0.1473926697526304,-0.012192307882589336,-0.1600194188134308,0.4631521373368107,-0.24914978513524824,-0.12290448968576956,-0.0665073608958301,0.10063401491748311,0.1803840105682058,-0.32247812101113005,0.35579264793159926,0.07794235198933894
94,2024-09-30 00:00:00+00:00,1.6099198785696305,0.06991212646773243,0.06417920378948015,0.13923040717227259,-0.11684418613271783,-0.0005913168703516276,0.0918060534643472,-0.020215140388123585,0.016038887550063094,0.15618909362988886,-0.02173663556223682,-0.17353517158148932,0.46830714839149296,-0.2447451927081769,-0.12742310585684732,-0.0734880920121518,0.09968847805843835,0.18843075321245056,-0.3273928688402908,0.36475496106626704,0.08181322017878569
95,2024-10-10 00:00:00+00:00,1.6186580152902659,0.060551605117507956,0.07450263734140455,0.14522741659096924,-0.12883403290074494,-0.001932717513015376,0.08304790776501683,-0.02166032901453398,0.030222466216555294,0.16456438138602958,-0.008105016573014164,-0.19080775114600035,0.477945493041271,-0.2397275466801838,-0.1406466452451002,-0.09712858170027401,0.1164328520183659,0.1934119104360397,-0.3428343013132403,0.3670564534045709,0.08590482494778001
96,2024-10-20 00:00:00+00:00,1.6233665806226758,0.05697514743581523,0.07953516550770662,0.14610245938955607,-0.13164256445008854,-0.004291904181211235,0.086593702687846,-0.028694039906013026,0.033647363191539,0.1619172476442408,0.0036320037480220045,-0.20419380955589347,0.47352938411216633,-0.2398007029502272,-0.13446117316652487,-0.09440887742464389,0.12302390715455278,0.1945365711676259,-0.3543071679567862,0.3723603826793224,0.08009855645674618
97,2024-10-30 00:00:00+00:00,1.6365065340863159,0.05346496347578851,0.08163939214066285,0.14386247964125212,-0.13219689125744885,-0.0023766446168510163,0.07714078222899234,-0.02781656364501027,0.03382302387860065,0.15481989539515403,0.009310246001336888,-0.1957694882781443,0.4722274634192204,-0.22248409356808438,-0.15679048328189304,-0.09633925093480498,0.12725568189780298,0.1988639019046487,-0.3499949955731639,0.3538054419121905,0.09362384316242806
98,2024-11-09 00:00:00+00:00,1.6342386315905961,0.051533326490986464,0.08549702406982086,0.15143432480403984,-0.13236962669983904,-0.0038877628526271493,0.08324329090667498,-0.03373002015733806,0.043284679946578045,0.15421426395688048,0.027511596240965955,-0.19907574056527844,0.49310341983210465,-0.22911088142875438,-0.17404776600650304,-0.1032687806058879,0.13348914929840083,0.19546549762009222,-0.37252128843304566,0.3561074655484911,0.09881128723857112
99,2024-11-19 00:00:00+00:00,1.6373779117297707,0.04442543263231301,0.08893999492420573,0.1487797158460223,-0.1224568772966742,-0.004369112344977414,0.08215653411535395,-0.036932712072552276,0.039930119070746825,0.17301572275987842,0.021410296189060228,-0.2097278181339434,0.4904781661754594,-0.22766899228730605,-0.1737867544816405,-0.13666333608048015,0.15019290455579115,0.20606382076866298,-0.37158803251627565,0.3553653231697048,0.10070798932346353
100,2024-11-29 00:00:00+00:00,1.6370819254914126,0.04694845178829425,0.0889768143345859,0.15310730328849498,-0.13028114679216204,-0.004631213317199519,0.08157574993456512,-0.036938302082397886,0.036231106621715116,0.18357193783206602,0.018509946055004545,-0.21007305590446682,0.49745494834306786,-0.23081010561063164,-0.1731204022874648,-0.1357386585443403,0.15188727595882767,0.20747946424282976,-0.37963517271055297,0.3588650727343523,0.10195808334820294
101,2024-12-09 00:00:00+00:00,1.6424311117597012,0.04134328451771054,0.09492448993803493,0.15148270620763765,-0.1360812997418985,-0.0034770429397364576,0.08404347541825366,-0.04048470633453429,0.038898758440791874,0.19252814635343235,0.01710615244550229,-0.21417753403548484,0.48149206674270395,-0.21768351123257107,-0.18268316938281481,-0.13489369918971564,0.15298916061541387,0.2100375391737318,-0.3943761747367613,0.3683198081371849,0.11522175215728553
102,2024-12-19 00:00:00+00:00,1.6379076434692053,0.033471873846887185,0.10117640271460468,0.1487015612069206,-0.12914989401624227,-0.005009071980393055,0.06838847950618905,-0.029791036871820786,0.044236217320689615,0.21277386874059367,0.006919477977974277,-0.22609784932597385,0.481851459925571,-0.22168883761182706,-0.1863890588712973,-0.15220158847752688,0.1642619341585783,0.2049489502300687,-0.40879480796849355,0.3817074555079699,0.12600733557046778
103,2024-12-29 00:00:00+00:00,1.648752592216412,0.03619621130056288,0.10286270339687338,0.14290822915099985,-0.13755441754229122,-0.004948498640481964,0.08900059150656525,-0.05112307968295919,0.04667579879257801,0.18992670338560463,0.019138798494902454,-0.22978977442062906,0.4642734364417571,-0.21618297584556342,-0.1752753765211254,-0.11362223353607998,0.16148648364125182,0.2076844743392903,-0.42166125486896133,0.3894020287784839,0.11457889747090683
104,2025-01-08 00:00:00+00:00,1.646532316509985,0.03619609941762051,0.10335681999429185,0.13931199641623482,-0.13781970370751093,-0.005029963154232906,0.08670535441533467,-0.05088489289664503,0.05256136417726476,0.19374233451342635,0.015896009058094383,-0.22932009915458537,0.45782924460627217,-0.21646723031540302,-0.17050163607600213,-0.11742536084569026,0.16778536538760605,0.20218566795146328,-0.41277093377333557,0.3870446743318661,0.10892233812652671
105,2025-01-18 00:00:00+00:00,1.6495315256555798,0.034372487556468705,0.10459382091163802,0.13673440697564102,-0.12738847750504737,-0.005907972683562395,0.07767143738835687,-0.059767939458738706,0.06417310743890632,0.22101720972027186,0.013451363035303506,-0.2553032818336228,0.46539557308593,-0.2057576452739316,-0.18159652337208834,-0.10942956496883767,0.1539606112848395,0.20757365092768834,-0.45366226334942944,0.40306688813486635,0.12706115224450198
106,2025-01-28 00:00:00+00:00,1.636552973580199,0.03592229627333836,0.10388963352173593,0.1320881261961287,-0.12166215297066596,-0.005941659814365023,0.07133806766449767,-0.059505021772545554,0.06868925483869313,0.24010442771281146,0.0027729291182087058,-0.26608299954146036,0.480408283686145,-0.212777660084696,-0.18637716369819582,-0.11617181836543575,0.1542615781616603,0.21071217995396826,-0.46742195125133074,0.4149538511511606,0.13563529501808883
107,2025-02-07 00:00:00+00:00,1.6333301983426722,0.03958793217664425,0.10274074698302474,0.12748682445567172,-0.13038702709508185,-0.0048760386013777255,0.04857544980406966,-0.04603127926164088,0.0716163833553061,0.26077966835236543,-0.01520141609286242,-0.269207187871491,0.48909546782107166,-0.20884581810425695,-0.19288234727764134,-0.11919115504778328,0.1465694468698057,0.2119137565625786,-0.4619112536303789,0.42053918271050716,0.14579353787993457
108,2025-02-17 00:00:00+00:00,1.6389702738765837,0.04116322750473379,0.10513536798554374,0.13338431611224658,-0.14879618167596473,-0.004524760163760163,0.058697050576095595,-0.052329167387809676,0.05967599600466956,0.23140114132373651,0.0028864714397843156,-0.24609861664911364,0.47454669008396855,-0.1966670546835176,-0.18686415453392072,-0.09869444647651165,0.14860236125418205,0.20711174312067854,-0.4473421059154836,0.4051922818894549,0.13299144341919156
109,2025-02-27 00:00:00+00:00,1.6409837402100818,0.046822309236534736,0.1048134622939072,0.12143963069989329,-0.15385543067749763,-0.004811786296088406,0.04728802362758999,-0.05372357609203129,0.07433588354874568,0.25963735477407784,-0.013671120346250025,-0.26590514143167165,0.4689609373899236,-0.1846458364324633,-0.18953813497883507,-0.08610945935504971,0.14104027416499598,0.20828598683858052,-0.4541064606127197,0.41428150301580013,0.1400656736539381
110,2025-03-09 00:00:00+00:00,1.6512899849384453,0.04755770488977737,0.10604437914042966,0.1360260820716989,-0.1666050873021163,-0.004945792548667724,0.03585186399742671,-0.037787701215236724,0.07459945851097152,0.24605103014475588,-0.008270405811208569,-0.2526033126204113,0.42326877057010753,-0.1590502711781061,-0.17067173428289084,-0.03966710553570969,0.1191550384291657,0.1935347423359982,-0.4415673322454426,0.4028555951551847,0.12320942598483764
111,2025-03-19 00:00:00+00:00,1.650675003253919,0.043593121833993734,0.10726980827015052,0.1434057508722656,-0.1616515714484126,-0.0052825333116669915,0.026434833607398425,-0.023470411438020613,0.06145325635438843,0.24917239493015014,-0.012685670393394305,-0.23928979034250242,0.4023755749019895,-0.13148075431082382,-0.17813672135392022,-0.039038982544273876,0.10963441235185278,0.18893932750381082,-0.43202622366196614,0.38520526882198364,0.1329223147104757
112,2025-03-29 00:00:00+00:00,1.657076293083401,0.031668205700874585,0.11322867683211618,0.15401475399263848,-0.15192965032295833,-0.0039520990541409996,0.044150398530748605,-0.045668874469862224,0.046133239152892545,0.22606541388498158,0.005849945033690848,-0.23591208833452978,0.40015781998675704,-0.12232680094257044,-0.17161551554573606,-0.0618863640822711,0.1405836942075766,0.2099334743846265,-0.4364905777508674,0.36414808996185977,0.1218594596798201
113,2025-04-08 00:00:00+00:00,1.6507655092738693,0.04048821447033253,0.10799601617180789,0.15110240315994142,-0.1640517415399279,-0.0025733629604716038,0.05085447205311376,-0.049842008948654176,0.036952675968559764,0.19310374006471875,0.014711917567386152,-0.22255714398532284,0.411242318695529,-0.12334003958975179,-0.16771986337499611,-0.03648372707000378,0.12716052088896804,0.21128817238790623,-0.42166342830536974,0.3578445660662715,0.11756241337365879
114,2025-04-18 00:00:00+00:00,1.660702768557974,0.03717480782580551,0.11009503005037209,0.157484481193438,-0.16280099004674858,-0.003974945946536091,0.04898512383364863,-0.05022341678661814,0.04476285399363347,0.18407320247922657,0.01816676923312185,-0.2249629040042943,0.38497759370133033,-0.10385829891124171,-0.16066164932668514,-0.031503678303617486,0.13129669843012684,0.20054903020461576,-0.4042677984904912,0.33985167103486563,0.11109005435206472
115,2025-04-28 00:00:00+00:00,1.6662578541822184,0.043495957250250517,0.10855537287781511,0.16227661518793315,-0.17187505413102164,-0.005063764649900616,0.036184769449414796,-0.034301682841250465,0.03244096935669818,0.20854303337824798,-0.002054927820499893,-0.2307534252607324,0.3867777924292797,-0.09779599370013721,-0.16021177898847708,0.0010083671858974834,0.10211811458067027,0.20762710735852236,-0.4348279857568441,0.3646725986257248,0.11878331209449662
116,2025-05-08 00:00:00+00:00,1.6655324117480423,0.03433114404686484,0.11688885929036041,0.16793667194104028,-0.17296499120174033,-0.00745747676634681,0.0458103038447427,-0.04226748222069042,0.03402044577853542,0.1757598582484268,0.033840270735490174,-0.2310375238399813,0.3647525016498771,-0.0706797426731906,-0.16810222509048933,-0.004377201699045966,0.11484640632411611,0.19770457412179654,-0.41668137588687587,0.33124768672029853,0.12479688215240767
117,2025-05-18 00:00:00+00:00,1.6611039734279787,0.04283888555358042,0.11500234871869357,0.1607646188247048,-0.18780188340703213,-0.008711771452088716,0.06856954709379356,-0.058245614849448304,0.009661413491478402,0.11894283494448223,0.06247122028537329,-0.20782747953175523,0.3825939398406484,-0.07882973262613553,-0.15737927002286473,0.027009860467166625,0.11290305408614429,0.1953524196862248,-0.406545125405999,0.3231766308838406,0.11158939371277957
118,2025-05-28 00:00:00+00:00,1.6795553755577473,0.03471017752995307,0.12005376246379808,0.1545560919032139,-0.16532334193085077,-0.008897252298993965,0.06578480298407592,-0.05880225004090924,0.022931929703053213,0.14707252432162435,0.037240584343364073,-0.2336264145974863,0.32555069776714884,-0.01441671922200477,-0.160591896814026,0.04489274856455164,0.08351940515688092,0.18970850830410532,-0.4236573184097893,0.32975795529854274,0.13737552583915252
119,2025-06-07 00:00:00+00:00,1.6829204911664206,0.03453782135420436,0.1217722602816824,0.15742027761157387,-0.17147708399336653,-0.007770407132902477,0.06337701688240177,-0.051765458636568805,0.019148563143005396,0.1353918243713005,0.037758657396687934,-0.22772286475805512,0.3105037716779342,0.011160698181674918,-0.16703736877462452,0.05046884290338782,0.08284314476536384,0.19150302152654836,-0.404149568028491,0.3073026998032942,0.14366019563863358
120,2025-06-17 00:00:00+00:00,1.6840006613624956,0.03727733892045434,0.11842210132821382,0.15933730099647195,-0.17556377596157563,-0.005071786462213731,0.060402838051009315,-0.04729716568328451,0.015239598138733646,0.1459571637842508,0.021751547069282028,-0.23038885697621125,0.3111452530251309,0.019355359380753865,-0.1718312500690935,0.04437630928715278,0.07846982935986954,0.20637494567214681,-0.3954449508874175,0.30252417122308795,0.15114796549418888
121,2025-06-27 00:00:00+00:00,1.689490510776328,0.03742379148881307,0.11477073465765902,0.15803600343028373,-0.16490663869473188,-0.004337063415762597,0.051425630715004784,-0.04723990231150169,0.03380412913937379,0.1692777342526614,0.011721575783132718,-0.2514421132407915,0.31305307406927274,0.0197313412784292,-0.18744478588641253,0.02028618127256652,0.08865203383510079,0.2160292032392322,-0.3830451173020373,0.28719042359606356,0.16146060934150883
122,2025-07-07 00:00:00+00:00,1.6965645169350352,0.02863714939576414,0.12244370987141616,0.16144100418089488,-0.16896171255616843,-0.00318462075587474,0.04663800290977532,-0.04186539810627787,0.04630755271118185,0.16697953716261635,0.015800623503510917,-0.25425692959114043,0.2686746765075455,0.06480146919386273,-0.194391503097204,0.013423392730170215,0.08899488913859394,0.2084741679237981,-0.35724636806428506,0.2633662319159403,0.17131106288838727
123,2025-07-17 00:00:00+00:00,1.731819198225566,0.0175118687326228,0.1225652108975031,0.16137899562350788,-0.139919011035587,-0.00352368303020713,0.04029731798552026,-0.045348596913003726,0.05933058199147682,0.2015723538182237,-0.011282795092407993,-0.2802242068066008,0.2025507617130141,0.10667406134865749,-0.18204216056393024,-0.0035747074981333144,0.08973955392389546,0.21002644873652937,-0.33846013685396203,0.24674432220769424,0.1738141937701462
124,2025-07-27 00:00:00+00:00,1.725809250074412,0.013706795745934912,0.12771771613426952,0.1595698847296004,-0.1408808228757436,-0.005502665042102028,0.04129565387518436,-0.04863865204604186,0.0580131176255637,0.1942556631280127,0.002778508725232508,-0.28102646328826186,0.2149196136025202,0.10198454205016999,-0.1839813292629895,-0.011828035702264041,0.09791598661602478,0.20063468067427426,-0.3481545312718774,0.25092615075480623,0.1799716838659853
125,2025-08-06 00:00:00+00:00,1.7205434221243034,0.0173450860166499,0.12836268189374722,0.16404578692594587,-0.14803115717300525,-0.005396450870729802,0.03305571137598328,-0.04500881198742645,0.05841417051059212,0.19180936393379353,-0.00317489450991955,-0.2853198550608711,0.19096063065519447,0.13276507829061837,-0.17494249346997293,-0.013122852358875139,0.10597201897792355,0.20360417534057884,-0.30288926932128163,0.21811474643519194,0.17359267069257614
126,2025-08-16 00:00:00+00:00,1.7207856607168872,0.020855762185245288,0.12342186846683952,0.15782910571037362,-0.1330616237683507,-0.004810575730374032,0.03445686184265058,-0.04957805785033087,0.06168547384207226,0.2090583035125351,-0.02218485112907974,-0.3004174802016196,0.18964680669765688,0.13519557149596573,-0.17806976015736536,-0.01313595038278712,0.10029390979003973,0.2167385135898069,-0.3057607982751769,0.2229524943714503,0.1783922438414251
127,2025-08-26 00:00:00+00:00,1.726191008737511,0.013031062011998665,0.12789847422631706,0.17080497101801326,-0.13700717787902758,-0.004903820407988695,0.04415934547583712,-0.05572228102253604,0.062398256504117545,0.17324825682190534,0.005981330210891316,-0.29868801865668027,0.19403468229411308,0.13234293980441791,-0.17977274493229783,-0.011254318067508104,0.10182838374262378,0.2067793569527275,-0.3143237604138588,0.221219524462717,0.18871165202867804
128,2025-09-05 00:00:00+00:00,1.7406879314672965,0.00992944302053466,0.12165500505431746,0.18179193417281364,-0.11243541147550767,-0.00405870162642691,0.04508601906449386,-0.05955276080311638,0.08224519936095115,0.17894354152626277,0.0016602772821707923,-0.3093340857582367,0.16898225117089719,0.14763655864883712,-0.18863253881224334,-0.015149425775505782,0.09907156880012762,0.20265008990469374,-0.3020672640492292,0.19508232351123872,0.19565381551273123
129,2025-09-15 00:00:00+00:00,1.750234721844653,0.0018921958124281217,0.12392971113860488,0.20397352716806125,-0.1120102552008113,-0.0015104287140117617,0.05715319792102404,-0.0738609711775886,0.08657909825211157,0.1664685318553225,0.02178324108530669,-0.3213210872008092,0.1602261856886402,0.15899093502874276,-0.20383430606541475,-0.01138110617173964,0.09260079301679505,0.21716765305562297,-0.323319086394946,0.19256538143339672,0.21421311116034103
130,2025-09-25 00:00:00+00:00,1.7605556943126008,0.0012769016566395498,0.12376386571829975,0.2174572862262027,-0.10367748733753446,-0.0018943658934821484,0.07908611085138403,-0.09404857443049448,0.10011558602012426,0.16283162625753328,0.028614440866210053,-0.32654437573820466,0.10405891075864135,0.20804548324356004,-0.20408824673667147,-0.01421574290335495,0.10880734625519772,0.21635380274762137,-0.28013067900738925,0.13712967795704187,0.20385819019480822
131,2025-10-05 00:00:00+00:00,1.7536659365952962,0.016161764516558014,0.11602173274178204,0.22060358302129213,-0.11738283489454862,-0.001086852673501253,0.12209628351905473,-0.12803083223320713,0.09069283185255828,0.1244212216390591,0.05215482851714394,-0.3307168067710554,0.11620663124663755,0.21148190083862667,-0.21616569133916558,0.0035124907486788815,0.10840994178015965,0.23917666934491583,-0.2570556947912353,0.11287097233583697,0.2073502295791394
132,2025-10-15 00:00:00+00:00,1.7563204220570983,0.018861508021031245,0.1104241156572026,0.23281279127536927,-0.11785481215988804,-0.0002026546029521935,0.1410330119646119,-0.13837169583102854,0.08514184367404057,0.10492850317783652,0.06331615539015385,-0.3218078330374342,0.09069936721626198,0.22918535948054938,-0.22599150398536014,-0.0007571145880617932,0.11700442875043418,0.2472355125334502,-0.2140638700344963,0.06718852287436594,0.2060814733146689
133,2025-10-25 00:00:00+00:00,1.7556006238158972,0.021810161418513274,0.10082938438007343,0.24058566964706737,-0.10181932555914269,0.0014465509166677866,0.12538585745618966,-0.12771027982951008,0.0830200013944698,0.11380603363611165,0.05705938705743803,-0.3293364744071129,0.11667407654094954,0.2052924950328608,-0.22936091658961683,0.008247579969784502,0.0933991533288802,0.2615763643317755,-0.23630746123762333,0.08050650993777153,0.21175884712376428
134,2025-11-04 00:00:00+00:00,1.7624907822061655,0.01724009456980711,0.09856116467068346,0.24642209210353458,-0.08344104644891814,-0.0014898801229701235,0.1371354235438715,-0.1286480159298652,0.06392764984047886,0.10542125093947151,0.0625906677686185,-0.31370243424595673,0.08305633990318936,0.21242850149796585,-0.2117370042550869,-0.00192673857068331,0.09724792443599117,0.255446353341865,-0.20863466031887495,0.05879128566060665,0.19188654462135324
135,2025-11-14 00:00:00+00:00,1.782894624475871,0.01626949527714473,0.10076488922187829,0.2631754918774045,-0.10161308774848819,-0.001602539417833134,0.11440404090645136,-0.10616659946038998,0.07366028996503733,0.1192934556167873,0.06729456956193683,-0.3020618059080096,0.01878097108034458,0.23870521048534363,-0.18343374197397053,0.04467099358526576,0.07112134653909981,0.2319147063217132,-0.20073104753254845,0.05065901407681958,0.1680814116153574
136,2025-11-24 00:00:00+00:00,1.7875053330791142,0.004715499712756902,0.1018664962710434,0.28831870716405406,-0.0928163575450494,-0.002458833067608195,0.11727410961128816,-0.10587137100688172,0.05219493900444009,0.0788665729757709,0.10829349113213337,-0.29332955481902884,0.022029391341823815,0.22363031662132735,-0.1735855410539292,0.02455002148087583,0.08241713163273348,0.23847474532016477,-0.18648993191318325,0.025199982110710353,0.16157272150317667
137,2025-12-04 00:00:00+00:00,1.787068059740718,0.01008324732790807,0.09558725912288972,0.2722071479976425,-0.07936465209888686,-0.00583880119844843,0.15286151371127363,-0.13339682246810097,0.04015695299185026,0.05921828193187447,0.1091249422151033,-0.2943956683652759,-0.0077285031178040585,0.24482503551132828,-0.1611981677609326,0.021785347030140914,0.08684807942463617,0.2368929529778196,-0.14349347497362144,-0.002737071433939972,0.15138850256428757
138,2025-12-14 00:00:00+00:00,1.7959478941849738,0.009998183414142086,0.09594745583019074,0.2783163942743396,-0.08725622964468586,-0.0066887820160953255,0.17447123747840332,-0.14748395423368224,0.038238601134344054,0.07276908016010385,0.1071752601279691,-0.29155218513746267,-0.04308945469708489,0.2588541774312675,-0.14317630775340273,0.02380324768295326,0.08814866615823122,0.22599555417351855,-0.13929969748690782,-0.005468773465270762,0.14293532718817342
139,2025-12-24 00:00:00+00:00,1.8019233693636514,0.010652439735249788,0.0926672730921854,0.27134778528623676,-0.0765211826942666,-0.007185296352819521,0.19360654341652137,-0.1713408626757027,0.05963670793287438,0.09157599414773153,0.09661413373093004,-0.31049663100495295,-0.06379719619400523,0.276409361663935,-0.13992892363130213,-0.007952105068670038,0.11436163812244785,0.22255229816935462,-0.11014159600273195,-0.03653764243175659,0.14005862971903807
140,2026-01-03 00:00:00+00:00,1.7936249932759332,0.02599208134140593,0.07872593151480393,0.27609863273786656,-0.07005645896719549,-0.010044880005120415,0.18805473935679642,-0.16316705051456493,0.05148194071341986,0.09005430055657135,0.08806066707074721,-0.3002510726748844,-0.06939284988778695,0.27554454058371225,-0.12720995090726153,-0.00022909775659939868,0.10659884103066179,0.20345099659481267,-0.05525317926830702,-0.0721232277109863,0.1346987964141363
141,2026-01-13 00:00:00+00:00,1.795800895643982,0.026750647454441532,0.07538991229811615,0.28351258263456874,-0.07865292157847306,-0.00847378643800326,0.17703470964944348,-0.14753925375508964,0.038657212370390215,0.09851443402625411,0.08429009569315567,-0.29477544109889686,-0.07387444524248574,0.26628359358112824,-0.11820122181120644,0.01385984129306949,0.0829105875200516,0.209557487692072,-0.06452333895791695,-0.05693377738849133,0.13526403196037343
142,2026-01-23 00:00:00+00:00,1.802692781158794,0.028354182092721333,0.07105806202184246,0.2819744155328271,-0.07655668828472088,-0.006990437178698964,0.18973027141814378,-0.15483016654966347,0.04199727382035865,0.10552657098564835,0.07560998237248105,-0.2869497340174832,-0.08124738322475045,0.25966614620610196,-0.1221443898445417,0.01658971211444972,0.07864208180440894,0.20002216948273005,-0.07022184515329953,-0.049229619836796155,0.14398472648275673
143,2026-02-02 00:00:00+00:00,1.8019635653839896,0.031611366128088875,0.06349568953799904,0.2999530407810505,-0.06900183579704434,-0.009369859299610036,0.15812617826029413,-0.1247134855093925,0.019900523131406878,0.12397091720473925,0.07046405320242277,-0.26677416246988583,-0.1067724408329817,0.25485811321584423,-0.08198769681042012,0.04673357249948349,0.045429557796638466,0.17618678746866162,-0.0636411300560264,-0.05041109899014366,0.12608554506667688
144,2026-02-12 00:00:00+00:00,1.7979538529263386,0.02153649957020112,0.07465712716370947,0.2906644832407126,-0.07080444085775434,-0.009072032646996664,0.14092374848541855,-0.11533811166776113,0.03353589494241862,0.13118596350140357,0.06762937822434548,-0.2828745682038131,-0.13953246470983913,0.30331246435687115,-0.08110863028132102,0.028851976279672405,0.0716675105612308,0.17793491505925088,-0.040366260699567266,-0.09022290087416623,0.12863963133570444
145,2026-02-22 00:00:00+00:00,1.7798953801208035,0.005744802014782121,0.0946078313983563,0.25672444709527414,-0.08040411984599263,-0.007788514824882662,0.10485314798166163,-0.08115512260926412,0.046596428495731326,0.15137592238314035,0.053505021984330874,-0.28727328323895,-0.1419132814090756,0.31868695665340824,-0.09484728132239309,-0.0010783115862306259,0.11531816248179441,0.1824976515363325,-0.050430569087079435,-0.09580557618514524,0.13170082029226687
146,2026-03-04 00:00:00+00:00,1.7769432353398897,-0.003059649233784633,0.103194731958519,0.2577513139363,-0.08960326488232383,-0.008407497903023765,0.08943268926218693,-0.07248877588568987,0.04723918234314256,0.14735655915462426,0.06821318402402014,-0.2990978950167172,-0.13857744467555358,0.3231346701068352,-0.09899052909045193,-0.012451920195419354,0.1216433314422322,0.19066533609070543,-0.056466266976579825,-0.09513906548768987,0.13658938674765705
147,2026-03-14 00:00:00+00:00,1.7851466640508507,-0.01092019421467267,0.1047258207836202,0.27036347211385525,-0.08043830756379687,-0.007857704156174003,0.08817215124075466,-0.07613278456508842,0.04277299607929735,0.1615031255719899,0.06414561163294155,-0.30298172154521236,-0.14573341450362282,0.3360401819479632,-0.09770741647739982,-0.024819138765130224,0.1155590912368093,0.1953733976879062,-0.07408601986800392,-0.09039370135726944,0.14266776985817414
148,2026-03-24 00:00:00+00:00,1.7849498800701733,-0.01472549398944467,0.10825371110361506,0.2950999012052187,-0.09710189332203373,-0.008754937683507467,0.0784489584824141,-0.057020592408459296,0.01596063150859406,0.15299484539180142,0.07130806488407741,-0.29702765322694774,-0.14858094783068718,0.32853974314261913,-0.07559881228781301,-0.024257408053070924,0.10831995068472884,0.20210997593256985,-0.07077259595647159,-0.08201743707737603,0.13457666180963868
149,2026-04-03 00:00:00+00:00,1.7723389969308851,-0.014966277649554317,0.10996029114707359,0.2981686380767985,-0.10486856153491471,-0.009319848121978854,0.009470858884623219,0.007477535463122085,-0.012327583880175496,0.17791409143567316,0.044223409834489885,-0.29031226301936636,-0.1306072337507343,0.3186787198061991,-0.0419373876039894,-0.018122908581298006,0.0877326818868268,0.20402143970194597,-0.06968221403584823,-0.06662871426633306,0.12439569938414666
